<?xml version="1.0" encoding="UTF-8" standalone="yes"?>
<PMML xmlns="http://www.dmg.org/PMML-4_4" xmlns:data="http://jpmml.org/jpmml-model/InlineTable" version="4.4">
	<Header>
		<Application/>
		<Timestamp>2021-11-22T11:11:27Z</Timestamp>
	</Header>
	<DataDictionary>
		<DataField name="Glucose" optype="continuous" dataType="double"/>
		<DataField name="BloodPressure" optype="continuous" dataType="double"/>
		<DataField name="DiabetesPedigreeFunction" optype="continuous" dataType="double"/>
		<DataField name="Age" optype="continuous" dataType="double"/>
		<DataField name="Outcome" optype="categorical" dataType="string">
			<Value value="0"/>
			<Value value="1"/>
		</DataField>
	</DataDictionary>
	<MiningModel functionName="classification" algorithmName="Gradient Boosting Machine">
		<MiningSchema>
			<MiningField name="Outcome" usageType="target"/>
			<MiningField name="Glucose"/>
			<MiningField name="BloodPressure"/>
			<MiningField name="DiabetesPedigreeFunction"/>
			<MiningField name="Age"/>
		</MiningSchema>
		<Segmentation multipleModelMethod="modelChain" missingPredictionTreatment="returnMissing">
			<Segment id="1">
				<True/>
				<MiningModel functionName="regression">
					<MiningSchema>
						<MiningField name="Glucose"/>
						<MiningField name="BloodPressure"/>
						<MiningField name="DiabetesPedigreeFunction"/>
						<MiningField name="Age"/>
					</MiningSchema>
					<Output>
						<OutputField name="gbmValue" optype="continuous" dataType="double" isFinalResult="false"/>
					</Output>
					<Targets>
						<Target rescaleConstant="-0.6236211179113352"/>
					</Targets>
					<Segmentation multipleModelMethod="sum">
						<Segment id="1">
							<True/>
							<TreeModel functionName="regression" missingValueStrategy="defaultChild">
								<MiningSchema>
									<MiningField name="Glucose"/>
									<MiningField name="BloodPressure"/>
									<MiningField name="DiabetesPedigreeFunction"/>
									<MiningField name="Age"/>
								</MiningSchema>
								<Node id="1" defaultChild="2">
									<True/>
									<Node id="2" defaultChild="3">
										<SimplePredicate field="Glucose" operator="lessThan" value="127.5"/>
										<Node id="3" defaultChild="4">
											<SimplePredicate field="Age" operator="lessThan" value="29.5"/>
											<Node id="4" defaultChild="5">
												<SimplePredicate field="DiabetesPedigreeFunction" operator="lessThan" value="0.6720468997955322"/>
												<Node id="5" score="-0.1325281709432602">
													<SimplePredicate field="Glucose" operator="lessThan" value="112.5"/>
												</Node>
												<Node id="6" score="-0.08023880422115326">
													<SimplePredicate field="Glucose" operator="greaterOrEqual" value="112.5"/>
												</Node>
											</Node>
											<Node id="7" defaultChild="9">
												<SimplePredicate field="DiabetesPedigreeFunction" operator="greaterOrEqual" value="0.6720468997955322"/>
												<Node id="8" score="-0.12215948849916458">
													<SimplePredicate field="BloodPressure" operator="lessThan" value="61.5"/>
												</Node>
												<Node id="9" score="-0.02980298548936844">
													<SimplePredicate field="BloodPressure" operator="greaterOrEqual" value="61.5"/>
												</Node>
											</Node>
										</Node>
										<Node id="10" defaultChild="14">
											<SimplePredicate field="Age" operator="greaterOrEqual" value="29.5"/>
											<Node id="11" defaultChild="12">
												<SimplePredicate field="Glucose" operator="lessThan" value="99.5"/>
												<Node id="12" score="-0.11127623915672302">
													<SimplePredicate field="DiabetesPedigreeFunction" operator="lessThan" value="0.7201874852180481"/>
												</Node>
												<Node id="13" score="0.015695063397288322">
													<SimplePredicate field="DiabetesPedigreeFunction" operator="greaterOrEqual" value="0.7201874852180481"/>
												</Node>
											</Node>
											<Node id="14" defaultChild="16">
												<SimplePredicate field="Glucose" operator="greaterOrEqual" value="99.5"/>
												<Node id="15" score="-0.052022963762283325">
													<SimplePredicate field="DiabetesPedigreeFunction" operator="lessThan" value="0.21449999511241913"/>
												</Node>
												<Node id="16" score="0.05402602255344391">
													<SimplePredicate field="DiabetesPedigreeFunction" operator="greaterOrEqual" value="0.21449999511241913"/>
												</Node>
											</Node>
										</Node>
									</Node>
									<Node id="17" defaultChild="18">
										<SimplePredicate field="Glucose" operator="greaterOrEqual" value="127.5"/>
										<Node id="18" defaultChild="20">
											<SimplePredicate field="Glucose" operator="lessThan" value="154.5"/>
											<Node id="19" score="0.246551975607872">
												<SimplePredicate field="BloodPressure" operator="lessThan" value="44.0"/>
											</Node>
											<Node id="20" defaultChild="22">
												<SimplePredicate field="BloodPressure" operator="greaterOrEqual" value="44.0"/>
												<Node id="21" score="-0.01766602322459221">
													<SimplePredicate field="Age" operator="lessThan" value="30.5"/>
												</Node>
												<Node id="22" score="0.08795515447854996">
													<SimplePredicate field="Age" operator="greaterOrEqual" value="30.5"/>
												</Node>
											</Node>
										</Node>
										<Node id="23" defaultChild="24">
											<SimplePredicate field="Glucose" operator="greaterOrEqual" value="154.5"/>
											<Node id="24" defaultChild="26">
												<SimplePredicate field="Age" operator="lessThan" value="57.5"/>
												<Node id="25" score="0.17396627366542816">
													<SimplePredicate field="DiabetesPedigreeFunction" operator="lessThan" value="0.34306249022483826"/>
												</Node>
												<Node id="26" score="0.23988278210163116">
													<SimplePredicate field="DiabetesPedigreeFunction" operator="greaterOrEqual" value="0.34306249022483826"/>
												</Node>
											</Node>
											<Node id="27" score="0.08341309428215027">
												<SimplePredicate field="Age" operator="greaterOrEqual" value="57.5"/>
											</Node>
										</Node>
									</Node>
								</Node>
							</TreeModel>
						</Segment>
						<Segment id="2">
							<True/>
							<TreeModel functionName="regression" missingValueStrategy="defaultChild">
								<MiningSchema>
									<MiningField name="Glucose"/>
									<MiningField name="BloodPressure"/>
									<MiningField name="DiabetesPedigreeFunction"/>
									<MiningField name="Age"/>
								</MiningSchema>
								<Node id="1" defaultChild="2">
									<True/>
									<Node id="2" defaultChild="3">
										<SimplePredicate field="Glucose" operator="lessThan" value="127.5"/>
										<Node id="3" defaultChild="4">
											<SimplePredicate field="Age" operator="lessThan" value="27.5"/>
											<Node id="4" defaultChild="5">
												<SimplePredicate field="DiabetesPedigreeFunction" operator="lessThan" value="0.49125000834465027"/>
												<Node id="5" score="-0.13633157312870026">
													<SimplePredicate field="BloodPressure" operator="lessThan" value="73.5"/>
												</Node>
												<Node id="6" score="-0.08891139924526215">
													<SimplePredicate field="BloodPressure" operator="greaterOrEqual" value="73.5"/>
												</Node>
											</Node>
											<Node id="7" defaultChild="9">
												<SimplePredicate field="DiabetesPedigreeFunction" operator="greaterOrEqual" value="0.49125000834465027"/>
												<Node id="8" score="-0.033704761415719986">
													<SimplePredicate field="DiabetesPedigreeFunction" operator="lessThan" value="0.5493633151054382"/>
												</Node>
												<Node id="9" score="-0.10465666651725769">
													<SimplePredicate field="DiabetesPedigreeFunction" operator="greaterOrEqual" value="0.5493633151054382"/>
												</Node>
											</Node>
										</Node>
										<Node id="10" defaultChild="14">
											<SimplePredicate field="Age" operator="greaterOrEqual" value="27.5"/>
											<Node id="11" defaultChild="12">
												<SimplePredicate field="Glucose" operator="lessThan" value="99.5"/>
												<Node id="12" score="-0.1115039512515068">
													<SimplePredicate field="DiabetesPedigreeFunction" operator="lessThan" value="0.714468777179718"/>
												</Node>
												<Node id="13" score="-0.007823211140930653">
													<SimplePredicate field="DiabetesPedigreeFunction" operator="greaterOrEqual" value="0.714468777179718"/>
												</Node>
											</Node>
											<Node id="14" defaultChild="16">
												<SimplePredicate field="Glucose" operator="greaterOrEqual" value="99.5"/>
												<Node id="15" score="-0.08374539017677307">
													<SimplePredicate field="DiabetesPedigreeFunction" operator="lessThan" value="0.19748437404632568"/>
												</Node>
												<Node id="16" score="0.043332088738679886">
													<SimplePredicate field="DiabetesPedigreeFunction" operator="greaterOrEqual" value="0.19748437404632568"/>
												</Node>
											</Node>
										</Node>
									</Node>
									<Node id="17" defaultChild="18">
										<SimplePredicate field="Glucose" operator="greaterOrEqual" value="127.5"/>
										<Node id="18" defaultChild="22">
											<SimplePredicate field="Glucose" operator="lessThan" value="154.5"/>
											<Node id="19" defaultChild="21">
												<SimplePredicate field="DiabetesPedigreeFunction" operator="lessThan" value="0.3157343864440918"/>
												<Node id="20" score="-0.08505850285291672">
													<SimplePredicate field="Age" operator="lessThan" value="27.5"/>
												</Node>
												<Node id="21" score="0.021575193852186203">
													<SimplePredicate field="Age" operator="greaterOrEqual" value="27.5"/>
												</Node>
											</Node>
											<Node id="22" defaultChild="24">
												<SimplePredicate field="DiabetesPedigreeFunction" operator="greaterOrEqual" value="0.3157343864440918"/>
												<Node id="23" score="5.302781355567276E-4">
													<SimplePredicate field="Age" operator="lessThan" value="24.5"/>
												</Node>
												<Node id="24" score="0.11396868526935577">
													<SimplePredicate field="Age" operator="greaterOrEqual" value="24.5"/>
												</Node>
											</Node>
										</Node>
										<Node id="25" defaultChild="29">
											<SimplePredicate field="Glucose" operator="greaterOrEqual" value="154.5"/>
											<Node id="26" defaultChild="28">
												<SimplePredicate field="DiabetesPedigreeFunction" operator="lessThan" value="0.34306249022483826"/>
												<Node id="27" score="0.06703286617994308">
													<SimplePredicate field="Glucose" operator="lessThan" value="166.5"/>
												</Node>
												<Node id="28" score="0.1803259253501892">
													<SimplePredicate field="Glucose" operator="greaterOrEqual" value="166.5"/>
												</Node>
											</Node>
											<Node id="29" defaultChild="30">
												<SimplePredicate field="DiabetesPedigreeFunction" operator="greaterOrEqual" value="0.34306249022483826"/>
												<Node id="30" score="0.21258074045181274">
													<SimplePredicate field="Glucose" operator="lessThan" value="188.5"/>
												</Node>
												<Node id="31" score="0.1401894986629486">
													<SimplePredicate field="Glucose" operator="greaterOrEqual" value="188.5"/>
												</Node>
											</Node>
										</Node>
									</Node>
								</Node>
							</TreeModel>
						</Segment>
						<Segment id="3">
							<True/>
							<TreeModel functionName="regression" missingValueStrategy="defaultChild">
								<MiningSchema>
									<MiningField name="Glucose"/>
									<MiningField name="BloodPressure"/>
									<MiningField name="DiabetesPedigreeFunction"/>
									<MiningField name="Age"/>
								</MiningSchema>
								<Node id="1" defaultChild="2">
									<True/>
									<Node id="2" defaultChild="3">
										<SimplePredicate field="Glucose" operator="lessThan" value="127.5"/>
										<Node id="3" defaultChild="4">
											<SimplePredicate field="Age" operator="lessThan" value="29.5"/>
											<Node id="4" defaultChild="5">
												<SimplePredicate field="DiabetesPedigreeFunction" operator="lessThan" value="0.6720468997955322"/>
												<Node id="5" score="-0.11920136958360672">
													<SimplePredicate field="Glucose" operator="lessThan" value="112.5"/>
												</Node>
												<Node id="6" score="-0.06831199675798416">
													<SimplePredicate field="Glucose" operator="greaterOrEqual" value="112.5"/>
												</Node>
											</Node>
											<Node id="7" defaultChild="9">
												<SimplePredicate field="DiabetesPedigreeFunction" operator="greaterOrEqual" value="0.6720468997955322"/>
												<Node id="8" score="-0.10995781421661377">
													<SimplePredicate field="BloodPressure" operator="lessThan" value="61.5"/>
												</Node>
												<Node id="9" score="-0.020191596820950508">
													<SimplePredicate field="BloodPressure" operator="greaterOrEqual" value="61.5"/>
												</Node>
											</Node>
										</Node>
										<Node id="10" defaultChild="14">
											<SimplePredicate field="Age" operator="greaterOrEqual" value="29.5"/>
											<Node id="11" defaultChild="12">
												<SimplePredicate field="Glucose" operator="lessThan" value="99.5"/>
												<Node id="12" score="-0.09712444245815277">
													<SimplePredicate field="DiabetesPedigreeFunction" operator="lessThan" value="0.7201874852180481"/>
												</Node>
												<Node id="13" score="0.014871745370328426">
													<SimplePredicate field="DiabetesPedigreeFunction" operator="greaterOrEqual" value="0.7201874852180481"/>
												</Node>
											</Node>
											<Node id="14" defaultChild="15">
												<SimplePredicate field="Glucose" operator="greaterOrEqual" value="99.5"/>
												<Node id="15" score="0.038634881377220154">
													<SimplePredicate field="Age" operator="lessThan" value="57.5"/>
												</Node>
												<Node id="16" score="-0.11479483544826508">
													<SimplePredicate field="Age" operator="greaterOrEqual" value="57.5"/>
												</Node>
											</Node>
										</Node>
									</Node>
									<Node id="17" defaultChild="18">
										<SimplePredicate field="Glucose" operator="greaterOrEqual" value="127.5"/>
										<Node id="18" defaultChild="20">
											<SimplePredicate field="Glucose" operator="lessThan" value="154.5"/>
											<Node id="19" score="0.20121683180332184">
												<SimplePredicate field="BloodPressure" operator="lessThan" value="44.0"/>
											</Node>
											<Node id="20" defaultChild="21">
												<SimplePredicate field="BloodPressure" operator="greaterOrEqual" value="44.0"/>
												<Node id="21" score="0.017651252448558807">
													<SimplePredicate field="BloodPressure" operator="lessThan" value="90.5"/>
												</Node>
												<Node id="22" score="0.19093172252178192">
													<SimplePredicate field="BloodPressure" operator="greaterOrEqual" value="90.5"/>
												</Node>
											</Node>
										</Node>
										<Node id="23" defaultChild="24">
											<SimplePredicate field="Glucose" operator="greaterOrEqual" value="154.5"/>
											<Node id="24" defaultChild="26">
												<SimplePredicate field="Age" operator="lessThan" value="57.5"/>
												<Node id="25" score="0.09068573266267776">
													<SimplePredicate field="Age" operator="lessThan" value="24.5"/>
												</Node>
												<Node id="26" score="0.1710996925830841">
													<SimplePredicate field="Age" operator="greaterOrEqual" value="24.5"/>
												</Node>
											</Node>
											<Node id="27" score="0.05546778067946434">
												<SimplePredicate field="Age" operator="greaterOrEqual" value="57.5"/>
											</Node>
										</Node>
									</Node>
								</Node>
							</TreeModel>
						</Segment>
						<Segment id="4">
							<True/>
							<TreeModel functionName="regression" missingValueStrategy="defaultChild">
								<MiningSchema>
									<MiningField name="Glucose"/>
									<MiningField name="DiabetesPedigreeFunction"/>
									<MiningField name="Age"/>
								</MiningSchema>
								<Node id="1" defaultChild="2">
									<True/>
									<Node id="2" defaultChild="3">
										<SimplePredicate field="Glucose" operator="lessThan" value="127.5"/>
										<Node id="3" defaultChild="4">
											<SimplePredicate field="Age" operator="lessThan" value="27.5"/>
											<Node id="4" defaultChild="5">
												<SimplePredicate field="DiabetesPedigreeFunction" operator="lessThan" value="0.49125000834465027"/>
												<Node id="5" score="-0.09366486221551895">
													<SimplePredicate field="DiabetesPedigreeFunction" operator="lessThan" value="0.2781679630279541"/>
												</Node>
												<Node id="6" score="-0.13735294342041016">
													<SimplePredicate field="DiabetesPedigreeFunction" operator="greaterOrEqual" value="0.2781679630279541"/>
												</Node>
											</Node>
											<Node id="7" defaultChild="9">
												<SimplePredicate field="DiabetesPedigreeFunction" operator="greaterOrEqual" value="0.49125000834465027"/>
												<Node id="8" score="-0.02177320048213005">
													<SimplePredicate field="DiabetesPedigreeFunction" operator="lessThan" value="0.5493633151054382"/>
												</Node>
												<Node id="9" score="-0.09358787536621094">
													<SimplePredicate field="DiabetesPedigreeFunction" operator="greaterOrEqual" value="0.5493633151054382"/>
												</Node>
											</Node>
										</Node>
										<Node id="10" defaultChild="14">
											<SimplePredicate field="Age" operator="greaterOrEqual" value="27.5"/>
											<Node id="11" defaultChild="12">
												<SimplePredicate field="Glucose" operator="lessThan" value="99.5"/>
												<Node id="12" score="-0.09554436057806015">
													<SimplePredicate field="DiabetesPedigreeFunction" operator="lessThan" value="0.7964296936988831"/>
												</Node>
												<Node id="13" score="0.005622750613838434">
													<SimplePredicate field="DiabetesPedigreeFunction" operator="greaterOrEqual" value="0.7964296936988831"/>
												</Node>
											</Node>
											<Node id="14" defaultChild="16">
												<SimplePredicate field="Glucose" operator="greaterOrEqual" value="99.5"/>
												<Node id="15" score="-0.07816998660564423">
													<SimplePredicate field="DiabetesPedigreeFunction" operator="lessThan" value="0.19748437404632568"/>
												</Node>
												<Node id="16" score="0.03734363615512848">
													<SimplePredicate field="DiabetesPedigreeFunction" operator="greaterOrEqual" value="0.19748437404632568"/>
												</Node>
											</Node>
										</Node>
									</Node>
									<Node id="17" defaultChild="18">
										<SimplePredicate field="Glucose" operator="greaterOrEqual" value="127.5"/>
										<Node id="18" defaultChild="22">
											<SimplePredicate field="Glucose" operator="lessThan" value="154.5"/>
											<Node id="19" defaultChild="21">
												<SimplePredicate field="DiabetesPedigreeFunction" operator="lessThan" value="0.3157343864440918"/>
												<Node id="20" score="-0.11777868866920471">
													<SimplePredicate field="Glucose" operator="lessThan" value="130.5"/>
												</Node>
												<Node id="21" score="0.007693602703511715">
													<SimplePredicate field="Glucose" operator="greaterOrEqual" value="130.5"/>
												</Node>
											</Node>
											<Node id="22" defaultChild="24">
												<SimplePredicate field="DiabetesPedigreeFunction" operator="greaterOrEqual" value="0.3157343864440918"/>
												<Node id="23" score="0.025204483419656754">
													<SimplePredicate field="Age" operator="lessThan" value="30.5"/>
												</Node>
												<Node id="24" score="0.10898716002702713">
													<SimplePredicate field="Age" operator="greaterOrEqual" value="30.5"/>
												</Node>
											</Node>
										</Node>
										<Node id="25" defaultChild="29">
											<SimplePredicate field="Glucose" operator="greaterOrEqual" value="154.5"/>
											<Node id="26" defaultChild="28">
												<SimplePredicate field="DiabetesPedigreeFunction" operator="lessThan" value="0.34306249022483826"/>
												<Node id="27" score="0.04342235252261162">
													<SimplePredicate field="Glucose" operator="lessThan" value="166.5"/>
												</Node>
												<Node id="28" score="0.1396346390247345">
													<SimplePredicate field="Glucose" operator="greaterOrEqual" value="166.5"/>
												</Node>
											</Node>
											<Node id="29" defaultChild="30">
												<SimplePredicate field="DiabetesPedigreeFunction" operator="greaterOrEqual" value="0.34306249022483826"/>
												<Node id="30" score="0.1687471717596054">
													<SimplePredicate field="Glucose" operator="lessThan" value="188.5"/>
												</Node>
												<Node id="31" score="0.10782449692487717">
													<SimplePredicate field="Glucose" operator="greaterOrEqual" value="188.5"/>
												</Node>
											</Node>
										</Node>
									</Node>
								</Node>
							</TreeModel>
						</Segment>
						<Segment id="5">
							<True/>
							<TreeModel functionName="regression" missingValueStrategy="defaultChild">
								<MiningSchema>
									<MiningField name="Glucose"/>
									<MiningField name="BloodPressure"/>
									<MiningField name="DiabetesPedigreeFunction"/>
									<MiningField name="Age"/>
								</MiningSchema>
								<Node id="1" defaultChild="2">
									<True/>
									<Node id="2" defaultChild="3">
										<SimplePredicate field="Glucose" operator="lessThan" value="123.5"/>
										<Node id="3" defaultChild="4">
											<SimplePredicate field="Age" operator="lessThan" value="29.5"/>
											<Node id="4" defaultChild="5">
												<SimplePredicate field="BloodPressure" operator="lessThan" value="82.0"/>
												<Node id="5" score="-0.11390221118927002">
													<SimplePredicate field="Glucose" operator="lessThan" value="104.5"/>
												</Node>
												<Node id="6" score="-0.06924714148044586">
													<SimplePredicate field="Glucose" operator="greaterOrEqual" value="104.5"/>
												</Node>
											</Node>
											<Node id="7" defaultChild="9">
												<SimplePredicate field="BloodPressure" operator="greaterOrEqual" value="82.0"/>
												<Node id="8" score="0.08798845112323761">
													<SimplePredicate field="BloodPressure" operator="lessThan" value="86.5"/>
												</Node>
												<Node id="9" score="-0.10197509080171585">
													<SimplePredicate field="BloodPressure" operator="greaterOrEqual" value="86.5"/>
												</Node>
											</Node>
										</Node>
										<Node id="10" defaultChild="14">
											<SimplePredicate field="Age" operator="greaterOrEqual" value="29.5"/>
											<Node id="11" defaultChild="12">
												<SimplePredicate field="Glucose" operator="lessThan" value="94.5"/>
												<Node id="12" score="-0.10811323672533035">
													<SimplePredicate field="DiabetesPedigreeFunction" operator="lessThan" value="0.7201874852180481"/>
												</Node>
												<Node id="13" score="0.023734459653496742">
													<SimplePredicate field="DiabetesPedigreeFunction" operator="greaterOrEqual" value="0.7201874852180481"/>
												</Node>
											</Node>
											<Node id="14" defaultChild="15">
												<SimplePredicate field="Glucose" operator="greaterOrEqual" value="94.5"/>
												<Node id="15" score="0.023092225193977356">
													<SimplePredicate field="Age" operator="lessThan" value="53.5"/>
												</Node>
												<Node id="16" score="-0.09637324512004852">
													<SimplePredicate field="Age" operator="greaterOrEqual" value="53.5"/>
												</Node>
											</Node>
										</Node>
									</Node>
									<Node id="17" defaultChild="18">
										<SimplePredicate field="Glucose" operator="greaterOrEqual" value="123.5"/>
										<Node id="18" defaultChild="22">
											<SimplePredicate field="Glucose" operator="lessThan" value="154.5"/>
											<Node id="19" defaultChild="21">
												<SimplePredicate field="Age" operator="lessThan" value="24.5"/>
												<Node id="20" score="-0.1195719763636589">
													<SimplePredicate field="Glucose" operator="lessThan" value="130.5"/>
												</Node>
												<Node id="21" score="-0.012697719037532806">
													<SimplePredicate field="Glucose" operator="greaterOrEqual" value="130.5"/>
												</Node>
											</Node>
											<Node id="22" defaultChild="23">
												<SimplePredicate field="Age" operator="greaterOrEqual" value="24.5"/>
												<Node id="23" score="0.036715686321258545">
													<SimplePredicate field="DiabetesPedigreeFunction" operator="lessThan" value="0.7239375114440918"/>
												</Node>
												<Node id="24" score="0.1521044373512268">
													<SimplePredicate field="DiabetesPedigreeFunction" operator="greaterOrEqual" value="0.7239375114440918"/>
												</Node>
											</Node>
										</Node>
										<Node id="25" defaultChild="26">
											<SimplePredicate field="Glucose" operator="greaterOrEqual" value="154.5"/>
											<Node id="26" defaultChild="28">
												<SimplePredicate field="Age" operator="lessThan" value="57.5"/>
												<Node id="27" score="0.06685396283864975">
													<SimplePredicate field="Age" operator="lessThan" value="24.5"/>
												</Node>
												<Node id="28" score="0.13885274529457092">
													<SimplePredicate field="Age" operator="greaterOrEqual" value="24.5"/>
												</Node>
											</Node>
											<Node id="29" score="0.03682967275381088">
												<SimplePredicate field="Age" operator="greaterOrEqual" value="57.5"/>
											</Node>
										</Node>
									</Node>
								</Node>
							</TreeModel>
						</Segment>
						<Segment id="6">
							<True/>
							<TreeModel functionName="regression" missingValueStrategy="defaultChild">
								<MiningSchema>
									<MiningField name="Glucose"/>
									<MiningField name="BloodPressure"/>
									<MiningField name="DiabetesPedigreeFunction"/>
									<MiningField name="Age"/>
								</MiningSchema>
								<Node id="1" defaultChild="2">
									<True/>
									<Node id="2" defaultChild="3">
										<SimplePredicate field="Glucose" operator="lessThan" value="123.5"/>
										<Node id="3" defaultChild="4">
											<SimplePredicate field="Age" operator="lessThan" value="29.5"/>
											<Node id="4" defaultChild="5">
												<SimplePredicate field="DiabetesPedigreeFunction" operator="lessThan" value="0.6720468997955322"/>
												<Node id="5" score="-0.10130483657121658">
													<SimplePredicate field="BloodPressure" operator="lessThan" value="79.5"/>
												</Node>
												<Node id="6" score="-0.048436086624860764">
													<SimplePredicate field="BloodPressure" operator="greaterOrEqual" value="79.5"/>
												</Node>
											</Node>
											<Node id="7" defaultChild="9">
												<SimplePredicate field="DiabetesPedigreeFunction" operator="greaterOrEqual" value="0.6720468997955322"/>
												<Node id="8" score="-0.13271985948085785">
													<SimplePredicate field="BloodPressure" operator="lessThan" value="61.5"/>
												</Node>
												<Node id="9" score="0.003297298913821578">
													<SimplePredicate field="BloodPressure" operator="greaterOrEqual" value="61.5"/>
												</Node>
											</Node>
										</Node>
										<Node id="10" defaultChild="11">
											<SimplePredicate field="Age" operator="greaterOrEqual" value="29.5"/>
											<Node id="11" defaultChild="13">
												<SimplePredicate field="DiabetesPedigreeFunction" operator="lessThan" value="1.1046680212020874"/>
												<Node id="12" score="-0.07929854840040207">
													<SimplePredicate field="Glucose" operator="lessThan" value="94.5"/>
												</Node>
												<Node id="13" score="-1.8056655244436115E-4">
													<SimplePredicate field="Glucose" operator="greaterOrEqual" value="94.5"/>
												</Node>
											</Node>
											<Node id="14" score="0.10569079220294952">
												<SimplePredicate field="DiabetesPedigreeFunction" operator="greaterOrEqual" value="1.1046680212020874"/>
											</Node>
										</Node>
									</Node>
									<Node id="15" defaultChild="16">
										<SimplePredicate field="Glucose" operator="greaterOrEqual" value="123.5"/>
										<Node id="16" defaultChild="20">
											<SimplePredicate field="Glucose" operator="lessThan" value="166.5"/>
											<Node id="17" defaultChild="19">
												<SimplePredicate field="Age" operator="lessThan" value="24.5"/>
												<Node id="18" score="-0.10552988946437836">
													<SimplePredicate field="DiabetesPedigreeFunction" operator="lessThan" value="0.3630000054836273"/>
												</Node>
												<Node id="19" score="-0.01858413964509964">
													<SimplePredicate field="DiabetesPedigreeFunction" operator="greaterOrEqual" value="0.3630000054836273"/>
												</Node>
											</Node>
											<Node id="20" defaultChild="21">
												<SimplePredicate field="Age" operator="greaterOrEqual" value="24.5"/>
												<Node id="21" score="0.03861056640744209">
													<SimplePredicate field="DiabetesPedigreeFunction" operator="lessThan" value="0.7239375114440918"/>
												</Node>
												<Node id="22" score="0.1461338847875595">
													<SimplePredicate field="DiabetesPedigreeFunction" operator="greaterOrEqual" value="0.7239375114440918"/>
												</Node>
											</Node>
										</Node>
										<Node id="23" defaultChild="24">
											<SimplePredicate field="Glucose" operator="greaterOrEqual" value="166.5"/>
											<Node id="24" defaultChild="26">
												<SimplePredicate field="DiabetesPedigreeFunction" operator="lessThan" value="1.1173593997955322"/>
												<Node id="25" score="0.178446426987648">
													<SimplePredicate field="Glucose" operator="lessThan" value="173.5"/>
												</Node>
												<Node id="26" score="0.1228257417678833">
													<SimplePredicate field="Glucose" operator="greaterOrEqual" value="173.5"/>
												</Node>
											</Node>
											<Node id="27" score="0.07115236669778824">
												<SimplePredicate field="DiabetesPedigreeFunction" operator="greaterOrEqual" value="1.1173593997955322"/>
											</Node>
										</Node>
									</Node>
								</Node>
							</TreeModel>
						</Segment>
						<Segment id="7">
							<True/>
							<TreeModel functionName="regression" missingValueStrategy="defaultChild">
								<MiningSchema>
									<MiningField name="Glucose"/>
									<MiningField name="DiabetesPedigreeFunction"/>
									<MiningField name="Age"/>
								</MiningSchema>
								<Node id="1" defaultChild="2">
									<True/>
									<Node id="2" defaultChild="3">
										<SimplePredicate field="Glucose" operator="lessThan" value="127.5"/>
										<Node id="3" defaultChild="7">
											<SimplePredicate field="Age" operator="lessThan" value="27.5"/>
											<Node id="4" defaultChild="5">
												<SimplePredicate field="Age" operator="lessThan" value="22.5"/>
												<Node id="5" score="-0.12775219976902008">
													<SimplePredicate field="Glucose" operator="lessThan" value="102.5"/>
												</Node>
												<Node id="6" score="-0.0736892968416214">
													<SimplePredicate field="Glucose" operator="greaterOrEqual" value="102.5"/>
												</Node>
											</Node>
											<Node id="7" defaultChild="9">
												<SimplePredicate field="Age" operator="greaterOrEqual" value="22.5"/>
												<Node id="8" score="0.009567604400217533">
													<SimplePredicate field="DiabetesPedigreeFunction" operator="lessThan" value="0.14257031679153442"/>
												</Node>
												<Node id="9" score="-0.07595866918563843">
													<SimplePredicate field="DiabetesPedigreeFunction" operator="greaterOrEqual" value="0.14257031679153442"/>
												</Node>
											</Node>
										</Node>
										<Node id="10" defaultChild="14">
											<SimplePredicate field="Age" operator="greaterOrEqual" value="27.5"/>
											<Node id="11" defaultChild="12">
												<SimplePredicate field="Glucose" operator="lessThan" value="99.5"/>
												<Node id="12" score="-0.08491988480091095">
													<SimplePredicate field="Age" operator="lessThan" value="43.5"/>
												</Node>
												<Node id="13" score="0.006315241567790508">
													<SimplePredicate field="Age" operator="greaterOrEqual" value="43.5"/>
												</Node>
											</Node>
											<Node id="14" defaultChild="16">
												<SimplePredicate field="Glucose" operator="greaterOrEqual" value="99.5"/>
												<Node id="15" score="-0.07227718830108643">
													<SimplePredicate field="DiabetesPedigreeFunction" operator="lessThan" value="0.19748437404632568"/>
												</Node>
												<Node id="16" score="0.03206980228424072">
													<SimplePredicate field="DiabetesPedigreeFunction" operator="greaterOrEqual" value="0.19748437404632568"/>
												</Node>
											</Node>
										</Node>
									</Node>
									<Node id="17" defaultChild="18">
										<SimplePredicate field="Glucose" operator="greaterOrEqual" value="127.5"/>
										<Node id="18" defaultChild="22">
											<SimplePredicate field="Glucose" operator="lessThan" value="166.5"/>
											<Node id="19" defaultChild="21">
												<SimplePredicate field="DiabetesPedigreeFunction" operator="lessThan" value="0.3157343864440918"/>
												<Node id="20" score="-0.07721211016178131">
													<SimplePredicate field="Age" operator="lessThan" value="27.5"/>
												</Node>
												<Node id="21" score="0.017805641517043114">
													<SimplePredicate field="Age" operator="greaterOrEqual" value="27.5"/>
												</Node>
											</Node>
											<Node id="22" defaultChild="24">
												<SimplePredicate field="DiabetesPedigreeFunction" operator="greaterOrEqual" value="0.3157343864440918"/>
												<Node id="23" score="1.0236323578283191E-4">
													<SimplePredicate field="Age" operator="lessThan" value="24.5"/>
												</Node>
												<Node id="24" score="0.0805591270327568">
													<SimplePredicate field="Age" operator="greaterOrEqual" value="24.5"/>
												</Node>
											</Node>
										</Node>
										<Node id="25" defaultChild="26">
											<SimplePredicate field="Glucose" operator="greaterOrEqual" value="166.5"/>
											<Node id="26" defaultChild="27">
												<SimplePredicate field="DiabetesPedigreeFunction" operator="lessThan" value="1.1173593997955322"/>
												<Node id="27" score="0.10573572665452957">
													<SimplePredicate field="Age" operator="lessThan" value="37.5"/>
												</Node>
												<Node id="28" score="0.15136955678462982">
													<SimplePredicate field="Age" operator="greaterOrEqual" value="37.5"/>
												</Node>
											</Node>
											<Node id="29" score="0.06461916118860245">
												<SimplePredicate field="DiabetesPedigreeFunction" operator="greaterOrEqual" value="1.1173593997955322"/>
											</Node>
										</Node>
									</Node>
								</Node>
							</TreeModel>
						</Segment>
						<Segment id="8">
							<True/>
							<TreeModel functionName="regression" missingValueStrategy="defaultChild">
								<MiningSchema>
									<MiningField name="Glucose"/>
									<MiningField name="BloodPressure"/>
									<MiningField name="DiabetesPedigreeFunction"/>
									<MiningField name="Age"/>
								</MiningSchema>
								<Node id="1" defaultChild="2">
									<True/>
									<Node id="2" defaultChild="3">
										<SimplePredicate field="Glucose" operator="lessThan" value="123.5"/>
										<Node id="3" defaultChild="4">
											<SimplePredicate field="Age" operator="lessThan" value="29.5"/>
											<Node id="4" defaultChild="5">
												<SimplePredicate field="BloodPressure" operator="lessThan" value="82.0"/>
												<Node id="5" score="-0.1007566824555397">
													<SimplePredicate field="DiabetesPedigreeFunction" operator="lessThan" value="0.49125000834465027"/>
												</Node>
												<Node id="6" score="-0.04705433547496796">
													<SimplePredicate field="DiabetesPedigreeFunction" operator="greaterOrEqual" value="0.49125000834465027"/>
												</Node>
											</Node>
											<Node id="7" defaultChild="9">
												<SimplePredicate field="BloodPressure" operator="greaterOrEqual" value="82.0"/>
												<Node id="8" score="0.08836080133914948">
													<SimplePredicate field="BloodPressure" operator="lessThan" value="86.5"/>
												</Node>
												<Node id="9" score="-0.09178011119365692">
													<SimplePredicate field="BloodPressure" operator="greaterOrEqual" value="86.5"/>
												</Node>
											</Node>
										</Node>
										<Node id="10" defaultChild="11">
											<SimplePredicate field="Age" operator="greaterOrEqual" value="29.5"/>
											<Node id="11" defaultChild="12">
												<SimplePredicate field="DiabetesPedigreeFunction" operator="lessThan" value="1.1046680212020874"/>
												<Node id="12" score="-0.0064058867283165455">
													<SimplePredicate field="Age" operator="lessThan" value="53.5"/>
												</Node>
												<Node id="13" score="-0.09880372136831284">
													<SimplePredicate field="Age" operator="greaterOrEqual" value="53.5"/>
												</Node>
											</Node>
											<Node id="14" score="0.09180638194084167">
												<SimplePredicate field="DiabetesPedigreeFunction" operator="greaterOrEqual" value="1.1046680212020874"/>
											</Node>
										</Node>
									</Node>
									<Node id="15" defaultChild="16">
										<SimplePredicate field="Glucose" operator="greaterOrEqual" value="123.5"/>
										<Node id="16" defaultChild="18">
											<SimplePredicate field="Glucose" operator="lessThan" value="154.5"/>
											<Node id="17" score="0.16005800664424896">
												<SimplePredicate field="BloodPressure" operator="lessThan" value="44.0"/>
											</Node>
											<Node id="18" defaultChild="20">
												<SimplePredicate field="BloodPressure" operator="greaterOrEqual" value="44.0"/>
												<Node id="19" score="-0.024975188076496124">
													<SimplePredicate field="Age" operator="lessThan" value="30.5"/>
												</Node>
												<Node id="20" score="0.04266175627708435">
													<SimplePredicate field="Age" operator="greaterOrEqual" value="30.5"/>
												</Node>
											</Node>
										</Node>
										<Node id="21" defaultChild="22">
											<SimplePredicate field="Glucose" operator="greaterOrEqual" value="154.5"/>
											<Node id="22" defaultChild="24">
												<SimplePredicate field="Age" operator="lessThan" value="57.5"/>
												<Node id="23" score="0.047703079879283905">
													<SimplePredicate field="Age" operator="lessThan" value="24.5"/>
												</Node>
												<Node id="24" score="0.11053671687841415">
													<SimplePredicate field="Age" operator="greaterOrEqual" value="24.5"/>
												</Node>
											</Node>
											<Node id="25" score="0.011899936012923717">
												<SimplePredicate field="Age" operator="greaterOrEqual" value="57.5"/>
											</Node>
										</Node>
									</Node>
								</Node>
							</TreeModel>
						</Segment>
						<Segment id="9">
							<True/>
							<TreeModel functionName="regression" missingValueStrategy="defaultChild">
								<MiningSchema>
									<MiningField name="Glucose"/>
									<MiningField name="DiabetesPedigreeFunction"/>
									<MiningField name="Age"/>
								</MiningSchema>
								<Node id="1" defaultChild="2">
									<True/>
									<Node id="2" defaultChild="10">
										<SimplePredicate field="Glucose" operator="lessThan" value="143.5"/>
										<Node id="3" defaultChild="4">
											<SimplePredicate field="Glucose" operator="lessThan" value="106.5"/>
											<Node id="4" defaultChild="5">
												<SimplePredicate field="DiabetesPedigreeFunction" operator="lessThan" value="0.6563984155654907"/>
												<Node id="5" score="-0.07213789224624634">
													<SimplePredicate field="DiabetesPedigreeFunction" operator="lessThan" value="0.5163175463676453"/>
												</Node>
												<Node id="6" score="-0.12689340114593506">
													<SimplePredicate field="DiabetesPedigreeFunction" operator="greaterOrEqual" value="0.5163175463676453"/>
												</Node>
											</Node>
											<Node id="7" defaultChild="8">
												<SimplePredicate field="DiabetesPedigreeFunction" operator="greaterOrEqual" value="0.6563984155654907"/>
												<Node id="8" score="-0.049115315079689026">
													<SimplePredicate field="Age" operator="lessThan" value="40.5"/>
												</Node>
												<Node id="9" score="0.1597851812839508">
													<SimplePredicate field="Age" operator="greaterOrEqual" value="40.5"/>
												</Node>
											</Node>
										</Node>
										<Node id="10" defaultChild="11">
											<SimplePredicate field="Glucose" operator="greaterOrEqual" value="106.5"/>
											<Node id="11" defaultChild="12">
												<SimplePredicate field="Age" operator="lessThan" value="60.5"/>
												<Node id="12" score="-0.023863252252340317">
													<SimplePredicate field="Age" operator="lessThan" value="31.0"/>
												</Node>
												<Node id="13" score="0.04494710639119148">
													<SimplePredicate field="Age" operator="greaterOrEqual" value="31.0"/>
												</Node>
											</Node>
											<Node id="14" score="-0.17217771708965302">
												<SimplePredicate field="Age" operator="greaterOrEqual" value="60.5"/>
											</Node>
										</Node>
									</Node>
									<Node id="15" defaultChild="23">
										<SimplePredicate field="Glucose" operator="greaterOrEqual" value="143.5"/>
										<Node id="16" defaultChild="20">
											<SimplePredicate field="DiabetesPedigreeFunction" operator="lessThan" value="0.3295820355415344"/>
											<Node id="17" defaultChild="18">
												<SimplePredicate field="Glucose" operator="lessThan" value="160.0"/>
												<Node id="18" score="0.004603132605552673">
													<SimplePredicate field="DiabetesPedigreeFunction" operator="lessThan" value="0.24239061772823334"/>
												</Node>
												<Node id="19" score="-0.0983767956495285">
													<SimplePredicate field="DiabetesPedigreeFunction" operator="greaterOrEqual" value="0.24239061772823334"/>
												</Node>
											</Node>
											<Node id="20" defaultChild="22">
												<SimplePredicate field="Glucose" operator="greaterOrEqual" value="160.0"/>
												<Node id="21" score="0.1366928517818451">
													<SimplePredicate field="DiabetesPedigreeFunction" operator="lessThan" value="0.17931640148162842"/>
												</Node>
												<Node id="22" score="0.03925187885761261">
													<SimplePredicate field="DiabetesPedigreeFunction" operator="greaterOrEqual" value="0.17931640148162842"/>
												</Node>
											</Node>
										</Node>
										<Node id="23" defaultChild="27">
											<SimplePredicate field="DiabetesPedigreeFunction" operator="greaterOrEqual" value="0.3295820355415344"/>
											<Node id="24" defaultChild="25">
												<SimplePredicate field="DiabetesPedigreeFunction" operator="lessThan" value="0.5500558018684387"/>
												<Node id="25" score="0.10789674520492554">
													<SimplePredicate field="DiabetesPedigreeFunction" operator="lessThan" value="0.43881651759147644"/>
												</Node>
												<Node id="26" score="0.17820098996162415">
													<SimplePredicate field="DiabetesPedigreeFunction" operator="greaterOrEqual" value="0.43881651759147644"/>
												</Node>
											</Node>
											<Node id="27" defaultChild="29">
												<SimplePredicate field="DiabetesPedigreeFunction" operator="greaterOrEqual" value="0.5500558018684387"/>
												<Node id="28" score="0.009722179733216763">
													<SimplePredicate field="Glucose" operator="lessThan" value="155.5"/>
												</Node>
												<Node id="29" score="0.09863758087158203">
													<SimplePredicate field="Glucose" operator="greaterOrEqual" value="155.5"/>
												</Node>
											</Node>
										</Node>
									</Node>
								</Node>
							</TreeModel>
						</Segment>
						<Segment id="10">
							<True/>
							<TreeModel functionName="regression" missingValueStrategy="defaultChild">
								<MiningSchema>
									<MiningField name="Glucose"/>
									<MiningField name="BloodPressure"/>
									<MiningField name="DiabetesPedigreeFunction"/>
									<MiningField name="Age"/>
								</MiningSchema>
								<Node id="1" defaultChild="2">
									<True/>
									<Node id="2" defaultChild="3">
										<SimplePredicate field="Glucose" operator="lessThan" value="123.5"/>
										<Node id="3" defaultChild="4">
											<SimplePredicate field="Age" operator="lessThan" value="29.5"/>
											<Node id="4" defaultChild="5">
												<SimplePredicate field="Glucose" operator="lessThan" value="101.5"/>
												<Node id="5" score="-0.10939088463783264">
													<SimplePredicate field="Age" operator="lessThan" value="25.5"/>
												</Node>
												<Node id="6" score="-0.04051322862505913">
													<SimplePredicate field="Age" operator="greaterOrEqual" value="25.5"/>
												</Node>
											</Node>
											<Node id="7" defaultChild="8">
												<SimplePredicate field="Glucose" operator="greaterOrEqual" value="101.5"/>
												<Node id="8" score="-0.06371589750051498">
													<SimplePredicate field="DiabetesPedigreeFunction" operator="lessThan" value="0.5041640400886536"/>
												</Node>
												<Node id="9" score="0.01070441771298647">
													<SimplePredicate field="DiabetesPedigreeFunction" operator="greaterOrEqual" value="0.5041640400886536"/>
												</Node>
											</Node>
										</Node>
										<Node id="10" defaultChild="11">
											<SimplePredicate field="Age" operator="greaterOrEqual" value="29.5"/>
											<Node id="11" defaultChild="13">
												<SimplePredicate field="BloodPressure" operator="lessThan" value="90.5"/>
												<Node id="12" score="-0.05666937679052353">
													<SimplePredicate field="Glucose" operator="lessThan" value="94.5"/>
												</Node>
												<Node id="13" score="0.01654871366918087">
													<SimplePredicate field="Glucose" operator="greaterOrEqual" value="94.5"/>
												</Node>
											</Node>
											<Node id="14" score="-0.11395379900932312">
												<SimplePredicate field="BloodPressure" operator="greaterOrEqual" value="90.5"/>
											</Node>
										</Node>
									</Node>
									<Node id="15" defaultChild="16">
										<SimplePredicate field="Glucose" operator="greaterOrEqual" value="123.5"/>
										<Node id="16" defaultChild="20">
											<SimplePredicate field="Glucose" operator="lessThan" value="166.5"/>
											<Node id="17" defaultChild="19">
												<SimplePredicate field="Age" operator="lessThan" value="24.5"/>
												<Node id="18" score="-0.1056433841586113">
													<SimplePredicate field="Glucose" operator="lessThan" value="130.5"/>
												</Node>
												<Node id="19" score="-0.0138947619125247">
													<SimplePredicate field="Glucose" operator="greaterOrEqual" value="130.5"/>
												</Node>
											</Node>
											<Node id="20" defaultChild="21">
												<SimplePredicate field="Age" operator="greaterOrEqual" value="24.5"/>
												<Node id="21" score="0.02376151829957962">
													<SimplePredicate field="DiabetesPedigreeFunction" operator="lessThan" value="0.7239375114440918"/>
												</Node>
												<Node id="22" score="0.1187424436211586">
													<SimplePredicate field="DiabetesPedigreeFunction" operator="greaterOrEqual" value="0.7239375114440918"/>
												</Node>
											</Node>
										</Node>
										<Node id="23" defaultChild="24">
											<SimplePredicate field="Glucose" operator="greaterOrEqual" value="166.5"/>
											<Node id="24" defaultChild="26">
												<SimplePredicate field="DiabetesPedigreeFunction" operator="lessThan" value="1.1173593997955322"/>
												<Node id="25" score="0.14746443927288055">
													<SimplePredicate field="Glucose" operator="lessThan" value="173.5"/>
												</Node>
												<Node id="26" score="0.08788416534662247">
													<SimplePredicate field="Glucose" operator="greaterOrEqual" value="173.5"/>
												</Node>
											</Node>
											<Node id="27" score="0.04208046942949295">
												<SimplePredicate field="DiabetesPedigreeFunction" operator="greaterOrEqual" value="1.1173593997955322"/>
											</Node>
										</Node>
									</Node>
								</Node>
							</TreeModel>
						</Segment>
						<Segment id="11">
							<True/>
							<TreeModel functionName="regression" missingValueStrategy="defaultChild">
								<MiningSchema>
									<MiningField name="Glucose"/>
									<MiningField name="BloodPressure"/>
									<MiningField name="DiabetesPedigreeFunction"/>
									<MiningField name="Age"/>
								</MiningSchema>
								<Node id="1" defaultChild="2">
									<True/>
									<Node id="2" defaultChild="3">
										<SimplePredicate field="Glucose" operator="lessThan" value="123.5"/>
										<Node id="3" defaultChild="4">
											<SimplePredicate field="Age" operator="lessThan" value="29.5"/>
											<Node id="4" defaultChild="5">
												<SimplePredicate field="BloodPressure" operator="lessThan" value="82.0"/>
												<Node id="5" score="-0.09137477725744247">
													<SimplePredicate field="DiabetesPedigreeFunction" operator="lessThan" value="0.49125000834465027"/>
												</Node>
												<Node id="6" score="-0.034652937203645706">
													<SimplePredicate field="DiabetesPedigreeFunction" operator="greaterOrEqual" value="0.49125000834465027"/>
												</Node>
											</Node>
											<Node id="7" defaultChild="9">
												<SimplePredicate field="BloodPressure" operator="greaterOrEqual" value="82.0"/>
												<Node id="8" score="0.09184838831424713">
													<SimplePredicate field="BloodPressure" operator="lessThan" value="86.5"/>
												</Node>
												<Node id="9" score="-0.08233067393302917">
													<SimplePredicate field="BloodPressure" operator="greaterOrEqual" value="86.5"/>
												</Node>
											</Node>
										</Node>
										<Node id="10" defaultChild="11">
											<SimplePredicate field="Age" operator="greaterOrEqual" value="29.5"/>
											<Node id="11" defaultChild="12">
												<SimplePredicate field="BloodPressure" operator="lessThan" value="90.5"/>
												<Node id="12" score="0.007292431779205799">
													<SimplePredicate field="Age" operator="lessThan" value="57.5"/>
												</Node>
												<Node id="13" score="-0.09998774528503418">
													<SimplePredicate field="Age" operator="greaterOrEqual" value="57.5"/>
												</Node>
											</Node>
											<Node id="14" score="-0.10664393752813339">
												<SimplePredicate field="BloodPressure" operator="greaterOrEqual" value="90.5"/>
											</Node>
										</Node>
									</Node>
									<Node id="15" defaultChild="23">
										<SimplePredicate field="Glucose" operator="greaterOrEqual" value="123.5"/>
										<Node id="16" defaultChild="17">
											<SimplePredicate field="DiabetesPedigreeFunction" operator="lessThan" value="0.3158593773841858"/>
											<Node id="17" defaultChild="18">
												<SimplePredicate field="DiabetesPedigreeFunction" operator="lessThan" value="0.2789212465286255"/>
												<Node id="18" score="-0.014874307438731194">
													<SimplePredicate field="Age" operator="lessThan" value="41.0"/>
												</Node>
												<Node id="19" score="0.05652320757508278">
													<SimplePredicate field="Age" operator="greaterOrEqual" value="41.0"/>
												</Node>
											</Node>
											<Node id="20" defaultChild="22">
												<SimplePredicate field="DiabetesPedigreeFunction" operator="greaterOrEqual" value="0.2789212465286255"/>
												<Node id="21" score="-0.11703727394342422">
													<SimplePredicate field="Glucose" operator="lessThan" value="135.5"/>
												</Node>
												<Node id="22" score="-0.04649609699845314">
													<SimplePredicate field="Glucose" operator="greaterOrEqual" value="135.5"/>
												</Node>
											</Node>
										</Node>
										<Node id="23" defaultChild="27">
											<SimplePredicate field="DiabetesPedigreeFunction" operator="greaterOrEqual" value="0.3158593773841858"/>
											<Node id="24" defaultChild="26">
												<SimplePredicate field="Age" operator="lessThan" value="24.5"/>
												<Node id="25" score="-0.08738397806882858">
													<SimplePredicate field="Glucose" operator="lessThan" value="131.5"/>
												</Node>
												<Node id="26" score="0.029131297022104263">
													<SimplePredicate field="Glucose" operator="greaterOrEqual" value="131.5"/>
												</Node>
											</Node>
											<Node id="27" defaultChild="28">
												<SimplePredicate field="Age" operator="greaterOrEqual" value="24.5"/>
												<Node id="28" score="0.08224335312843323">
													<SimplePredicate field="Age" operator="lessThan" value="59.5"/>
												</Node>
												<Node id="29" score="-0.03785570338368416">
													<SimplePredicate field="Age" operator="greaterOrEqual" value="59.5"/>
												</Node>
											</Node>
										</Node>
									</Node>
								</Node>
							</TreeModel>
						</Segment>
						<Segment id="12">
							<True/>
							<TreeModel functionName="regression" missingValueStrategy="defaultChild">
								<MiningSchema>
									<MiningField name="Glucose"/>
									<MiningField name="DiabetesPedigreeFunction"/>
									<MiningField name="Age"/>
								</MiningSchema>
								<Node id="1" defaultChild="2">
									<True/>
									<Node id="2" defaultChild="10">
										<SimplePredicate field="Glucose" operator="lessThan" value="143.5"/>
										<Node id="3" defaultChild="4">
											<SimplePredicate field="Glucose" operator="lessThan" value="106.5"/>
											<Node id="4" defaultChild="5">
												<SimplePredicate field="DiabetesPedigreeFunction" operator="lessThan" value="0.6563984155654907"/>
												<Node id="5" score="-0.0619468055665493">
													<SimplePredicate field="DiabetesPedigreeFunction" operator="lessThan" value="0.5163175463676453"/>
												</Node>
												<Node id="6" score="-0.12181800603866577">
													<SimplePredicate field="DiabetesPedigreeFunction" operator="greaterOrEqual" value="0.5163175463676453"/>
												</Node>
											</Node>
											<Node id="7" defaultChild="8">
												<SimplePredicate field="DiabetesPedigreeFunction" operator="greaterOrEqual" value="0.6563984155654907"/>
												<Node id="8" score="-0.04090448468923569">
													<SimplePredicate field="Age" operator="lessThan" value="40.5"/>
												</Node>
												<Node id="9" score="0.14219322800636292">
													<SimplePredicate field="Age" operator="greaterOrEqual" value="40.5"/>
												</Node>
											</Node>
										</Node>
										<Node id="10" defaultChild="11">
											<SimplePredicate field="Glucose" operator="greaterOrEqual" value="106.5"/>
											<Node id="11" defaultChild="12">
												<SimplePredicate field="Age" operator="lessThan" value="54.5"/>
												<Node id="12" score="-0.004154905676841736">
													<SimplePredicate field="Age" operator="lessThan" value="41.5"/>
												</Node>
												<Node id="13" score="0.09175845235586166">
													<SimplePredicate field="Age" operator="greaterOrEqual" value="41.5"/>
												</Node>
											</Node>
											<Node id="14" defaultChild="15">
												<SimplePredicate field="Age" operator="greaterOrEqual" value="54.5"/>
												<Node id="15" score="-0.07259440422058105">
													<SimplePredicate field="Age" operator="lessThan" value="60.5"/>
												</Node>
												<Node id="16" score="-0.16083717346191406">
													<SimplePredicate field="Age" operator="greaterOrEqual" value="60.5"/>
												</Node>
											</Node>
										</Node>
									</Node>
									<Node id="17" defaultChild="25">
										<SimplePredicate field="Glucose" operator="greaterOrEqual" value="143.5"/>
										<Node id="18" defaultChild="22">
											<SimplePredicate field="DiabetesPedigreeFunction" operator="lessThan" value="0.3295820355415344"/>
											<Node id="19" defaultChild="20">
												<SimplePredicate field="Glucose" operator="lessThan" value="160.0"/>
												<Node id="20" score="0.0011324191000312567">
													<SimplePredicate field="DiabetesPedigreeFunction" operator="lessThan" value="0.24239061772823334"/>
												</Node>
												<Node id="21" score="-0.09206572920084">
													<SimplePredicate field="DiabetesPedigreeFunction" operator="greaterOrEqual" value="0.24239061772823334"/>
												</Node>
											</Node>
											<Node id="22" defaultChild="23">
												<SimplePredicate field="Glucose" operator="greaterOrEqual" value="160.0"/>
												<Node id="23" score="0.025135990232229233">
													<SimplePredicate field="Glucose" operator="lessThan" value="180.5"/>
												</Node>
												<Node id="24" score="0.11768081784248352">
													<SimplePredicate field="Glucose" operator="greaterOrEqual" value="180.5"/>
												</Node>
											</Node>
										</Node>
										<Node id="25" defaultChild="29">
											<SimplePredicate field="DiabetesPedigreeFunction" operator="greaterOrEqual" value="0.3295820355415344"/>
											<Node id="26" defaultChild="27">
												<SimplePredicate field="DiabetesPedigreeFunction" operator="lessThan" value="0.5500558018684387"/>
												<Node id="27" score="0.08868555724620819">
													<SimplePredicate field="DiabetesPedigreeFunction" operator="lessThan" value="0.43881651759147644"/>
												</Node>
												<Node id="28" score="0.16012881696224213">
													<SimplePredicate field="DiabetesPedigreeFunction" operator="greaterOrEqual" value="0.43881651759147644"/>
												</Node>
											</Node>
											<Node id="29" defaultChild="31">
												<SimplePredicate field="DiabetesPedigreeFunction" operator="greaterOrEqual" value="0.5500558018684387"/>
												<Node id="30" score="-0.0055101183243095875">
													<SimplePredicate field="Glucose" operator="lessThan" value="155.5"/>
												</Node>
												<Node id="31" score="0.08126048743724823">
													<SimplePredicate field="Glucose" operator="greaterOrEqual" value="155.5"/>
												</Node>
											</Node>
										</Node>
									</Node>
								</Node>
							</TreeModel>
						</Segment>
						<Segment id="13">
							<True/>
							<TreeModel functionName="regression" missingValueStrategy="defaultChild">
								<MiningSchema>
									<MiningField name="Glucose"/>
									<MiningField name="BloodPressure"/>
									<MiningField name="DiabetesPedigreeFunction"/>
									<MiningField name="Age"/>
								</MiningSchema>
								<Node id="1" defaultChild="2">
									<True/>
									<Node id="2" defaultChild="3">
										<SimplePredicate field="Glucose" operator="lessThan" value="127.5"/>
										<Node id="3" defaultChild="7">
											<SimplePredicate field="Age" operator="lessThan" value="27.5"/>
											<Node id="4" defaultChild="5">
												<SimplePredicate field="Age" operator="lessThan" value="22.5"/>
												<Node id="5" score="-0.10134653747081757">
													<SimplePredicate field="BloodPressure" operator="lessThan" value="79.5"/>
												</Node>
												<Node id="6" score="-0.024815324693918228">
													<SimplePredicate field="BloodPressure" operator="greaterOrEqual" value="79.5"/>
												</Node>
											</Node>
											<Node id="7" defaultChild="9">
												<SimplePredicate field="Age" operator="greaterOrEqual" value="22.5"/>
												<Node id="8" score="0.040624383836984634">
													<SimplePredicate field="DiabetesPedigreeFunction" operator="lessThan" value="0.14257031679153442"/>
												</Node>
												<Node id="9" score="-0.05476453900337219">
													<SimplePredicate field="DiabetesPedigreeFunction" operator="greaterOrEqual" value="0.14257031679153442"/>
												</Node>
											</Node>
										</Node>
										<Node id="10" defaultChild="14">
											<SimplePredicate field="Age" operator="greaterOrEqual" value="27.5"/>
											<Node id="11" defaultChild="12">
												<SimplePredicate field="Glucose" operator="lessThan" value="99.5"/>
												<Node id="12" score="-0.07079046964645386">
													<SimplePredicate field="Age" operator="lessThan" value="43.5"/>
												</Node>
												<Node id="13" score="0.02157038263976574">
													<SimplePredicate field="Age" operator="greaterOrEqual" value="43.5"/>
												</Node>
											</Node>
											<Node id="14" defaultChild="16">
												<SimplePredicate field="Glucose" operator="greaterOrEqual" value="99.5"/>
												<Node id="15" score="-0.061236318200826645">
													<SimplePredicate field="DiabetesPedigreeFunction" operator="lessThan" value="0.19748437404632568"/>
												</Node>
												<Node id="16" score="0.028776712715625763">
													<SimplePredicate field="DiabetesPedigreeFunction" operator="greaterOrEqual" value="0.19748437404632568"/>
												</Node>
											</Node>
										</Node>
									</Node>
									<Node id="17" defaultChild="18">
										<SimplePredicate field="Glucose" operator="greaterOrEqual" value="127.5"/>
										<Node id="18" defaultChild="19">
											<SimplePredicate field="Age" operator="lessThan" value="53.5"/>
											<Node id="19" defaultChild="21">
												<SimplePredicate field="Age" operator="lessThan" value="40.5"/>
												<Node id="20" score="0.17435011267662048">
													<SimplePredicate field="BloodPressure" operator="lessThan" value="43.0"/>
												</Node>
												<Node id="21" score="0.01771158166229725">
													<SimplePredicate field="BloodPressure" operator="greaterOrEqual" value="43.0"/>
												</Node>
											</Node>
											<Node id="22" defaultChild="23">
												<SimplePredicate field="Age" operator="greaterOrEqual" value="40.5"/>
												<Node id="23" score="0.11407442390918732">
													<SimplePredicate field="DiabetesPedigreeFunction" operator="lessThan" value="0.6072343587875366"/>
												</Node>
												<Node id="24" score="0.0415344312787056">
													<SimplePredicate field="DiabetesPedigreeFunction" operator="greaterOrEqual" value="0.6072343587875366"/>
												</Node>
											</Node>
										</Node>
										<Node id="25" defaultChild="27">
											<SimplePredicate field="Age" operator="greaterOrEqual" value="53.5"/>
											<Node id="26" score="-0.13709230720996857">
												<SimplePredicate field="Glucose" operator="lessThan" value="140.0"/>
											</Node>
											<Node id="27" defaultChild="29">
												<SimplePredicate field="Glucose" operator="greaterOrEqual" value="140.0"/>
												<Node id="28" score="-0.0747038871049881">
													<SimplePredicate field="DiabetesPedigreeFunction" operator="lessThan" value="0.3544999957084656"/>
												</Node>
												<Node id="29" score="0.08929644525051117">
													<SimplePredicate field="DiabetesPedigreeFunction" operator="greaterOrEqual" value="0.3544999957084656"/>
												</Node>
											</Node>
										</Node>
									</Node>
								</Node>
							</TreeModel>
						</Segment>
						<Segment id="14">
							<True/>
							<TreeModel functionName="regression" missingValueStrategy="defaultChild">
								<MiningSchema>
									<MiningField name="Glucose"/>
									<MiningField name="BloodPressure"/>
									<MiningField name="DiabetesPedigreeFunction"/>
									<MiningField name="Age"/>
								</MiningSchema>
								<Node id="1" defaultChild="2">
									<True/>
									<Node id="2" defaultChild="10">
										<SimplePredicate field="Glucose" operator="lessThan" value="154.5"/>
										<Node id="3" defaultChild="4">
											<SimplePredicate field="Glucose" operator="lessThan" value="103.5"/>
											<Node id="4" defaultChild="5">
												<SimplePredicate field="Age" operator="lessThan" value="42.5"/>
												<Node id="5" score="-0.07465481758117676">
													<SimplePredicate field="BloodPressure" operator="lessThan" value="79.5"/>
												</Node>
												<Node id="6" score="-0.011577388271689415">
													<SimplePredicate field="BloodPressure" operator="greaterOrEqual" value="79.5"/>
												</Node>
											</Node>
											<Node id="7" defaultChild="9">
												<SimplePredicate field="Age" operator="greaterOrEqual" value="42.5"/>
												<Node id="8" score="0.07017132639884949">
													<SimplePredicate field="Age" operator="lessThan" value="46.5"/>
												</Node>
												<Node id="9" score="-0.04672779142856598">
													<SimplePredicate field="Age" operator="greaterOrEqual" value="46.5"/>
												</Node>
											</Node>
										</Node>
										<Node id="10" defaultChild="11">
											<SimplePredicate field="Glucose" operator="greaterOrEqual" value="103.5"/>
											<Node id="11" defaultChild="12">
												<SimplePredicate field="DiabetesPedigreeFunction" operator="lessThan" value="0.509640634059906"/>
												<Node id="12" score="-0.020171819254755974">
													<SimplePredicate field="BloodPressure" operator="lessThan" value="94.5"/>
												</Node>
												<Node id="13" score="0.11157792806625366">
													<SimplePredicate field="BloodPressure" operator="greaterOrEqual" value="94.5"/>
												</Node>
											</Node>
											<Node id="14" defaultChild="16">
												<SimplePredicate field="DiabetesPedigreeFunction" operator="greaterOrEqual" value="0.509640634059906"/>
												<Node id="15" score="0.11760569363832474">
													<SimplePredicate field="DiabetesPedigreeFunction" operator="lessThan" value="0.5513209104537964"/>
												</Node>
												<Node id="16" score="0.013376538641750813">
													<SimplePredicate field="DiabetesPedigreeFunction" operator="greaterOrEqual" value="0.5513209104537964"/>
												</Node>
											</Node>
										</Node>
									</Node>
									<Node id="17" defaultChild="18">
										<SimplePredicate field="Glucose" operator="greaterOrEqual" value="154.5"/>
										<Node id="18" defaultChild="19">
											<SimplePredicate field="Age" operator="lessThan" value="53.5"/>
											<Node id="19" defaultChild="21">
												<SimplePredicate field="DiabetesPedigreeFunction" operator="lessThan" value="0.6801093816757202"/>
												<Node id="20" score="-0.04028601199388504">
													<SimplePredicate field="Age" operator="lessThan" value="24.5"/>
												</Node>
												<Node id="21" score="0.07527976483106613">
													<SimplePredicate field="Age" operator="greaterOrEqual" value="24.5"/>
												</Node>
											</Node>
											<Node id="22" defaultChild="23">
												<SimplePredicate field="DiabetesPedigreeFunction" operator="greaterOrEqual" value="0.6801093816757202"/>
												<Node id="23" score="0.13809604942798615">
													<SimplePredicate field="Glucose" operator="lessThan" value="182.0"/>
												</Node>
												<Node id="24" score="0.04864579811692238">
													<SimplePredicate field="Glucose" operator="greaterOrEqual" value="182.0"/>
												</Node>
											</Node>
										</Node>
										<Node id="25" score="-0.007429151330143213">
											<SimplePredicate field="Age" operator="greaterOrEqual" value="53.5"/>
										</Node>
									</Node>
								</Node>
							</TreeModel>
						</Segment>
						<Segment id="15">
							<True/>
							<TreeModel functionName="regression" missingValueStrategy="defaultChild">
								<MiningSchema>
									<MiningField name="Glucose"/>
									<MiningField name="BloodPressure"/>
									<MiningField name="DiabetesPedigreeFunction"/>
									<MiningField name="Age"/>
								</MiningSchema>
								<Node id="1" defaultChild="2">
									<True/>
									<Node id="2" defaultChild="3">
										<SimplePredicate field="Glucose" operator="lessThan" value="154.5"/>
										<Node id="3" defaultChild="7">
											<SimplePredicate field="Age" operator="lessThan" value="31.5"/>
											<Node id="4" defaultChild="5">
												<SimplePredicate field="BloodPressure" operator="lessThan" value="34.5"/>
												<Node id="5" score="-0.052477508783340454">
													<SimplePredicate field="Glucose" operator="lessThan" value="108.5"/>
												</Node>
												<Node id="6" score="0.15369579195976257">
													<SimplePredicate field="Glucose" operator="greaterOrEqual" value="108.5"/>
												</Node>
											</Node>
											<Node id="7" defaultChild="8">
												<SimplePredicate field="BloodPressure" operator="greaterOrEqual" value="34.5"/>
												<Node id="8" score="-0.04469013214111328">
													<SimplePredicate field="Age" operator="lessThan" value="30.5"/>
												</Node>
												<Node id="9" score="0.03837831690907478">
													<SimplePredicate field="Age" operator="greaterOrEqual" value="30.5"/>
												</Node>
											</Node>
										</Node>
										<Node id="10" defaultChild="11">
											<SimplePredicate field="Age" operator="greaterOrEqual" value="31.5"/>
											<Node id="11" defaultChild="12">
												<SimplePredicate field="Age" operator="lessThan" value="57.0"/>
												<Node id="12" score="0.0014306859811767936">
													<SimplePredicate field="DiabetesPedigreeFunction" operator="lessThan" value="0.5144687294960022"/>
												</Node>
												<Node id="13" score="0.05428050458431244">
													<SimplePredicate field="DiabetesPedigreeFunction" operator="greaterOrEqual" value="0.5144687294960022"/>
												</Node>
											</Node>
											<Node id="14" defaultChild="15">
												<SimplePredicate field="Age" operator="greaterOrEqual" value="57.0"/>
												<Node id="15" score="-0.10986090451478958">
													<SimplePredicate field="BloodPressure" operator="lessThan" value="81.5"/>
												</Node>
												<Node id="16" score="-0.003947795368731022">
													<SimplePredicate field="BloodPressure" operator="greaterOrEqual" value="81.5"/>
												</Node>
											</Node>
										</Node>
									</Node>
									<Node id="17" defaultChild="18">
										<SimplePredicate field="Glucose" operator="greaterOrEqual" value="154.5"/>
										<Node id="18" defaultChild="19">
											<SimplePredicate field="Age" operator="lessThan" value="57.5"/>
											<Node id="19" defaultChild="20">
												<SimplePredicate field="DiabetesPedigreeFunction" operator="lessThan" value="0.6801093816757202"/>
												<Node id="20" score="0.06635816395282745">
													<SimplePredicate field="DiabetesPedigreeFunction" operator="lessThan" value="0.5875923037528992"/>
												</Node>
												<Node id="21" score="-0.045656006783246994">
													<SimplePredicate field="DiabetesPedigreeFunction" operator="greaterOrEqual" value="0.5875923037528992"/>
												</Node>
											</Node>
											<Node id="22" defaultChild="23">
												<SimplePredicate field="DiabetesPedigreeFunction" operator="greaterOrEqual" value="0.6801093816757202"/>
												<Node id="23" score="0.1336093693971634">
													<SimplePredicate field="DiabetesPedigreeFunction" operator="lessThan" value="1.2034358978271484"/>
												</Node>
												<Node id="24" score="0.042442433536052704">
													<SimplePredicate field="DiabetesPedigreeFunction" operator="greaterOrEqual" value="1.2034358978271484"/>
												</Node>
											</Node>
										</Node>
										<Node id="25" score="-0.01618049480021">
											<SimplePredicate field="Age" operator="greaterOrEqual" value="57.5"/>
										</Node>
									</Node>
								</Node>
							</TreeModel>
						</Segment>
						<Segment id="16">
							<True/>
							<TreeModel functionName="regression" missingValueStrategy="defaultChild">
								<MiningSchema>
									<MiningField name="Glucose"/>
									<MiningField name="BloodPressure"/>
									<MiningField name="DiabetesPedigreeFunction"/>
									<MiningField name="Age"/>
								</MiningSchema>
								<Node id="1" defaultChild="2">
									<True/>
									<Node id="2" defaultChild="3">
										<SimplePredicate field="Glucose" operator="lessThan" value="123.5"/>
										<Node id="3" defaultChild="4">
											<SimplePredicate field="BloodPressure" operator="lessThan" value="78.5"/>
											<Node id="4" defaultChild="5">
												<SimplePredicate field="Age" operator="lessThan" value="52.5"/>
												<Node id="5" score="-0.059666845947504044">
													<SimplePredicate field="Age" operator="lessThan" value="30.5"/>
												</Node>
												<Node id="6" score="0.006040678359568119">
													<SimplePredicate field="Age" operator="greaterOrEqual" value="30.5"/>
												</Node>
											</Node>
											<Node id="7" score="-0.10502324998378754">
												<SimplePredicate field="Age" operator="greaterOrEqual" value="52.5"/>
											</Node>
										</Node>
										<Node id="8" defaultChild="9">
											<SimplePredicate field="BloodPressure" operator="greaterOrEqual" value="78.5"/>
											<Node id="9" defaultChild="10">
												<SimplePredicate field="BloodPressure" operator="lessThan" value="87.0"/>
												<Node id="10" score="0.00450582941994071">
													<SimplePredicate field="DiabetesPedigreeFunction" operator="lessThan" value="0.6455312371253967"/>
												</Node>
												<Node id="11" score="0.13503296673297882">
													<SimplePredicate field="DiabetesPedigreeFunction" operator="greaterOrEqual" value="0.6455312371253967"/>
												</Node>
											</Node>
											<Node id="12" defaultChild="13">
												<SimplePredicate field="BloodPressure" operator="greaterOrEqual" value="87.0"/>
												<Node id="13" score="-0.09116213768720627">
													<SimplePredicate field="Glucose" operator="lessThan" value="114.5"/>
												</Node>
												<Node id="14" score="0.006267419550567865">
													<SimplePredicate field="Glucose" operator="greaterOrEqual" value="114.5"/>
												</Node>
											</Node>
										</Node>
									</Node>
									<Node id="15" defaultChild="21">
										<SimplePredicate field="Glucose" operator="greaterOrEqual" value="123.5"/>
										<Node id="16" defaultChild="17">
											<SimplePredicate field="DiabetesPedigreeFunction" operator="lessThan" value="0.3089980483055115"/>
											<Node id="17" defaultChild="18">
												<SimplePredicate field="DiabetesPedigreeFunction" operator="lessThan" value="0.28655293583869934"/>
												<Node id="18" score="-0.023098526522517204">
													<SimplePredicate field="Age" operator="lessThan" value="41.0"/>
												</Node>
												<Node id="19" score="0.04692923650145531">
													<SimplePredicate field="Age" operator="greaterOrEqual" value="41.0"/>
												</Node>
											</Node>
											<Node id="20" score="-0.11715348809957504">
												<SimplePredicate field="DiabetesPedigreeFunction" operator="greaterOrEqual" value="0.28655293583869934"/>
											</Node>
										</Node>
										<Node id="21" defaultChild="25">
											<SimplePredicate field="DiabetesPedigreeFunction" operator="greaterOrEqual" value="0.3089980483055115"/>
											<Node id="22" defaultChild="23">
												<SimplePredicate field="BloodPressure" operator="lessThan" value="72.5"/>
												<Node id="23" score="0.03799152374267578">
													<SimplePredicate field="BloodPressure" operator="lessThan" value="65.5"/>
												</Node>
												<Node id="24" score="0.11292427778244019">
													<SimplePredicate field="BloodPressure" operator="greaterOrEqual" value="65.5"/>
												</Node>
											</Node>
											<Node id="25" defaultChild="27">
												<SimplePredicate field="BloodPressure" operator="greaterOrEqual" value="72.5"/>
												<Node id="26" score="-0.04610826075077057">
													<SimplePredicate field="Age" operator="lessThan" value="24.5"/>
												</Node>
												<Node id="27" score="0.03703010827302933">
													<SimplePredicate field="Age" operator="greaterOrEqual" value="24.5"/>
												</Node>
											</Node>
										</Node>
									</Node>
								</Node>
							</TreeModel>
						</Segment>
						<Segment id="17">
							<True/>
							<TreeModel functionName="regression" missingValueStrategy="defaultChild">
								<MiningSchema>
									<MiningField name="Glucose"/>
									<MiningField name="DiabetesPedigreeFunction"/>
									<MiningField name="Age"/>
								</MiningSchema>
								<Node id="1" defaultChild="2">
									<True/>
									<Node id="2" defaultChild="8">
										<SimplePredicate field="Glucose" operator="lessThan" value="165.5"/>
										<Node id="3" defaultChild="4">
											<SimplePredicate field="Glucose" operator="lessThan" value="99.5"/>
											<Node id="4" defaultChild="6">
												<SimplePredicate field="Age" operator="lessThan" value="42.5"/>
												<Node id="5" score="0.03509073331952095">
													<SimplePredicate field="Glucose" operator="lessThan" value="68.0"/>
												</Node>
												<Node id="6" score="-0.07383570820093155">
													<SimplePredicate field="Glucose" operator="greaterOrEqual" value="68.0"/>
												</Node>
											</Node>
											<Node id="7" score="0.02174551971256733">
												<SimplePredicate field="Age" operator="greaterOrEqual" value="42.5"/>
											</Node>
										</Node>
										<Node id="8" defaultChild="12">
											<SimplePredicate field="Glucose" operator="greaterOrEqual" value="99.5"/>
											<Node id="9" defaultChild="10">
												<SimplePredicate field="Age" operator="lessThan" value="24.5"/>
												<Node id="10" score="-0.02453928254544735">
													<SimplePredicate field="DiabetesPedigreeFunction" operator="lessThan" value="0.7081953287124634"/>
												</Node>
												<Node id="11" score="-0.1041397973895073">
													<SimplePredicate field="DiabetesPedigreeFunction" operator="greaterOrEqual" value="0.7081953287124634"/>
												</Node>
											</Node>
											<Node id="12" defaultChild="13">
												<SimplePredicate field="Age" operator="greaterOrEqual" value="24.5"/>
												<Node id="13" score="0.020107991993427277">
													<SimplePredicate field="Age" operator="lessThan" value="56.5"/>
												</Node>
												<Node id="14" score="-0.05777306109666824">
													<SimplePredicate field="Age" operator="greaterOrEqual" value="56.5"/>
												</Node>
											</Node>
										</Node>
									</Node>
									<Node id="15" defaultChild="16">
										<SimplePredicate field="Glucose" operator="greaterOrEqual" value="165.5"/>
										<Node id="16" defaultChild="20">
											<SimplePredicate field="DiabetesPedigreeFunction" operator="lessThan" value="1.1575156450271606"/>
											<Node id="17" defaultChild="18">
												<SimplePredicate field="DiabetesPedigreeFunction" operator="lessThan" value="0.3261343538761139"/>
												<Node id="18" score="-0.013828719034790993">
													<SimplePredicate field="Glucose" operator="lessThan" value="180.5"/>
												</Node>
												<Node id="19" score="0.09785091131925583">
													<SimplePredicate field="Glucose" operator="greaterOrEqual" value="180.5"/>
												</Node>
											</Node>
											<Node id="20" defaultChild="21">
												<SimplePredicate field="DiabetesPedigreeFunction" operator="greaterOrEqual" value="0.3261343538761139"/>
												<Node id="21" score="0.13147130608558655">
													<SimplePredicate field="Glucose" operator="lessThan" value="187.5"/>
												</Node>
												<Node id="22" score="0.03481742739677429">
													<SimplePredicate field="Glucose" operator="greaterOrEqual" value="187.5"/>
												</Node>
											</Node>
										</Node>
										<Node id="23" score="-0.005005593877285719">
											<SimplePredicate field="DiabetesPedigreeFunction" operator="greaterOrEqual" value="1.1575156450271606"/>
										</Node>
									</Node>
								</Node>
							</TreeModel>
						</Segment>
						<Segment id="18">
							<True/>
							<TreeModel functionName="regression" missingValueStrategy="defaultChild">
								<MiningSchema>
									<MiningField name="Glucose"/>
									<MiningField name="BloodPressure"/>
									<MiningField name="DiabetesPedigreeFunction"/>
									<MiningField name="Age"/>
								</MiningSchema>
								<Node id="1" defaultChild="2">
									<True/>
									<Node id="2" defaultChild="3">
										<SimplePredicate field="Glucose" operator="lessThan" value="127.5"/>
										<Node id="3" defaultChild="4">
											<SimplePredicate field="DiabetesPedigreeFunction" operator="lessThan" value="0.6589257717132568"/>
											<Node id="4" defaultChild="5">
												<SimplePredicate field="Age" operator="lessThan" value="54.5"/>
												<Node id="5" score="-0.04762090742588043">
													<SimplePredicate field="Age" operator="lessThan" value="34.5"/>
												</Node>
												<Node id="6" score="0.010519905015826225">
													<SimplePredicate field="Age" operator="greaterOrEqual" value="34.5"/>
												</Node>
											</Node>
											<Node id="7" score="-0.1267612725496292">
												<SimplePredicate field="Age" operator="greaterOrEqual" value="54.5"/>
											</Node>
										</Node>
										<Node id="8" defaultChild="12">
											<SimplePredicate field="DiabetesPedigreeFunction" operator="greaterOrEqual" value="0.6589257717132568"/>
											<Node id="9" defaultChild="10">
												<SimplePredicate field="BloodPressure" operator="lessThan" value="61.5"/>
												<Node id="10" score="-0.1394532024860382">
													<SimplePredicate field="DiabetesPedigreeFunction" operator="lessThan" value="0.9361171722412109"/>
												</Node>
												<Node id="11" score="0.002242262242361903">
													<SimplePredicate field="DiabetesPedigreeFunction" operator="greaterOrEqual" value="0.9361171722412109"/>
												</Node>
											</Node>
											<Node id="12" defaultChild="13">
												<SimplePredicate field="BloodPressure" operator="greaterOrEqual" value="61.5"/>
												<Node id="13" score="0.003942033741623163">
													<SimplePredicate field="Age" operator="lessThan" value="36.5"/>
												</Node>
												<Node id="14" score="0.08327744156122208">
													<SimplePredicate field="Age" operator="greaterOrEqual" value="36.5"/>
												</Node>
											</Node>
										</Node>
									</Node>
									<Node id="15" defaultChild="17">
										<SimplePredicate field="Glucose" operator="greaterOrEqual" value="127.5"/>
										<Node id="16" score="0.12094676494598389">
											<SimplePredicate field="BloodPressure" operator="lessThan" value="48.5"/>
										</Node>
										<Node id="17" defaultChild="21">
											<SimplePredicate field="BloodPressure" operator="greaterOrEqual" value="48.5"/>
											<Node id="18" defaultChild="19">
												<SimplePredicate field="DiabetesPedigreeFunction" operator="lessThan" value="0.30662500858306885"/>
												<Node id="19" score="0.0012924950569868088">
													<SimplePredicate field="DiabetesPedigreeFunction" operator="lessThan" value="0.279296875"/>
												</Node>
												<Node id="20" score="-0.10345087200403214">
													<SimplePredicate field="DiabetesPedigreeFunction" operator="greaterOrEqual" value="0.279296875"/>
												</Node>
											</Node>
											<Node id="21" defaultChild="23">
												<SimplePredicate field="DiabetesPedigreeFunction" operator="greaterOrEqual" value="0.30662500858306885"/>
												<Node id="22" score="0.09096187353134155">
													<SimplePredicate field="DiabetesPedigreeFunction" operator="lessThan" value="0.37266796827316284"/>
												</Node>
												<Node id="23" score="0.024647358804941177">
													<SimplePredicate field="DiabetesPedigreeFunction" operator="greaterOrEqual" value="0.37266796827316284"/>
												</Node>
											</Node>
										</Node>
									</Node>
								</Node>
							</TreeModel>
						</Segment>
						<Segment id="19">
							<True/>
							<TreeModel functionName="regression" missingValueStrategy="defaultChild">
								<MiningSchema>
									<MiningField name="Glucose"/>
									<MiningField name="DiabetesPedigreeFunction"/>
									<MiningField name="Age"/>
								</MiningSchema>
								<Node id="1" defaultChild="2">
									<True/>
									<Node id="2" defaultChild="10">
										<SimplePredicate field="Glucose" operator="lessThan" value="154.5"/>
										<Node id="3" defaultChild="4">
											<SimplePredicate field="Glucose" operator="lessThan" value="106.5"/>
											<Node id="4" defaultChild="6">
												<SimplePredicate field="DiabetesPedigreeFunction" operator="lessThan" value="0.6563984155654907"/>
												<Node id="5" score="-0.0838908925652504">
													<SimplePredicate field="DiabetesPedigreeFunction" operator="lessThan" value="0.23163707554340363"/>
												</Node>
												<Node id="6" score="-0.04159630462527275">
													<SimplePredicate field="DiabetesPedigreeFunction" operator="greaterOrEqual" value="0.23163707554340363"/>
												</Node>
											</Node>
											<Node id="7" defaultChild="8">
												<SimplePredicate field="DiabetesPedigreeFunction" operator="greaterOrEqual" value="0.6563984155654907"/>
												<Node id="8" score="-0.02639814279973507">
													<SimplePredicate field="Age" operator="lessThan" value="40.5"/>
												</Node>
												<Node id="9" score="0.11072913557291031">
													<SimplePredicate field="Age" operator="greaterOrEqual" value="40.5"/>
												</Node>
											</Node>
										</Node>
										<Node id="10" defaultChild="11">
											<SimplePredicate field="Glucose" operator="greaterOrEqual" value="106.5"/>
											<Node id="11" defaultChild="12">
												<SimplePredicate field="Age" operator="lessThan" value="54.5"/>
												<Node id="12" score="-0.005783332511782646">
													<SimplePredicate field="Age" operator="lessThan" value="41.5"/>
												</Node>
												<Node id="13" score="0.06992993503808975">
													<SimplePredicate field="Age" operator="greaterOrEqual" value="41.5"/>
												</Node>
											</Node>
											<Node id="14" defaultChild="15">
												<SimplePredicate field="Age" operator="greaterOrEqual" value="54.5"/>
												<Node id="15" score="-0.09834326058626175">
													<SimplePredicate field="Glucose" operator="lessThan" value="139.0"/>
												</Node>
												<Node id="16" score="0.010883771814405918">
													<SimplePredicate field="Glucose" operator="greaterOrEqual" value="139.0"/>
												</Node>
											</Node>
										</Node>
									</Node>
									<Node id="17" defaultChild="18">
										<SimplePredicate field="Glucose" operator="greaterOrEqual" value="154.5"/>
										<Node id="18" defaultChild="22">
											<SimplePredicate field="Age" operator="lessThan" value="53.5"/>
											<Node id="19" defaultChild="20">
												<SimplePredicate field="DiabetesPedigreeFunction" operator="lessThan" value="0.27018749713897705"/>
												<Node id="20" score="0.034803397953510284">
													<SimplePredicate field="Age" operator="lessThan" value="37.5"/>
												</Node>
												<Node id="21" score="0.14343684911727905">
													<SimplePredicate field="Age" operator="greaterOrEqual" value="37.5"/>
												</Node>
											</Node>
											<Node id="22" defaultChild="24">
												<SimplePredicate field="DiabetesPedigreeFunction" operator="greaterOrEqual" value="0.27018749713897705"/>
												<Node id="23" score="-0.027602313086390495">
													<SimplePredicate field="DiabetesPedigreeFunction" operator="lessThan" value="0.3541645407676697"/>
												</Node>
												<Node id="24" score="0.06680134683847427">
													<SimplePredicate field="DiabetesPedigreeFunction" operator="greaterOrEqual" value="0.3541645407676697"/>
												</Node>
											</Node>
										</Node>
										<Node id="25" score="-0.015002164989709854">
											<SimplePredicate field="Age" operator="greaterOrEqual" value="53.5"/>
										</Node>
									</Node>
								</Node>
							</TreeModel>
						</Segment>
						<Segment id="20">
							<True/>
							<TreeModel functionName="regression" missingValueStrategy="defaultChild">
								<MiningSchema>
									<MiningField name="Glucose"/>
									<MiningField name="DiabetesPedigreeFunction"/>
									<MiningField name="Age"/>
								</MiningSchema>
								<Node id="1" defaultChild="2">
									<True/>
									<Node id="2" defaultChild="3">
										<SimplePredicate field="DiabetesPedigreeFunction" operator="lessThan" value="1.3976621627807617"/>
										<Node id="3" defaultChild="4">
											<SimplePredicate field="DiabetesPedigreeFunction" operator="lessThan" value="1.1785776615142822"/>
											<Node id="4" defaultChild="5">
												<SimplePredicate field="Glucose" operator="lessThan" value="144.0"/>
												<Node id="5" score="-0.009895574301481247">
													<SimplePredicate field="Age" operator="lessThan" value="54.5"/>
												</Node>
												<Node id="6" score="-0.07878757268190384">
													<SimplePredicate field="Age" operator="greaterOrEqual" value="54.5"/>
												</Node>
											</Node>
											<Node id="7" defaultChild="8">
												<SimplePredicate field="Glucose" operator="greaterOrEqual" value="144.0"/>
												<Node id="8" score="0.01126512885093689">
													<SimplePredicate field="Age" operator="lessThan" value="39.5"/>
												</Node>
												<Node id="9" score="0.05749920755624771">
													<SimplePredicate field="Age" operator="greaterOrEqual" value="39.5"/>
												</Node>
											</Node>
										</Node>
										<Node id="10" score="0.17079399526119232">
											<SimplePredicate field="DiabetesPedigreeFunction" operator="greaterOrEqual" value="1.1785776615142822"/>
										</Node>
									</Node>
									<Node id="11" score="-0.1332021951675415">
										<SimplePredicate field="DiabetesPedigreeFunction" operator="greaterOrEqual" value="1.3976621627807617"/>
									</Node>
								</Node>
							</TreeModel>
						</Segment>
						<Segment id="21">
							<True/>
							<TreeModel functionName="regression" missingValueStrategy="defaultChild">
								<MiningSchema>
									<MiningField name="Glucose"/>
									<MiningField name="BloodPressure"/>
									<MiningField name="DiabetesPedigreeFunction"/>
									<MiningField name="Age"/>
								</MiningSchema>
								<Node id="1" defaultChild="2">
									<True/>
									<Node id="2" defaultChild="10">
										<SimplePredicate field="Glucose" operator="lessThan" value="166.5"/>
										<Node id="3" defaultChild="4">
											<SimplePredicate field="Age" operator="lessThan" value="23.5"/>
											<Node id="4" defaultChild="5">
												<SimplePredicate field="DiabetesPedigreeFunction" operator="lessThan" value="0.509640634059906"/>
												<Node id="5" score="-0.08637664467096329">
													<SimplePredicate field="BloodPressure" operator="lessThan" value="85.5"/>
												</Node>
												<Node id="6" score="0.011012195609509945">
													<SimplePredicate field="BloodPressure" operator="greaterOrEqual" value="85.5"/>
												</Node>
											</Node>
											<Node id="7" defaultChild="8">
												<SimplePredicate field="DiabetesPedigreeFunction" operator="greaterOrEqual" value="0.509640634059906"/>
												<Node id="8" score="0.05917302146553993">
													<SimplePredicate field="DiabetesPedigreeFunction" operator="lessThan" value="0.7052489519119263"/>
												</Node>
												<Node id="9" score="-0.09751259535551071">
													<SimplePredicate field="DiabetesPedigreeFunction" operator="greaterOrEqual" value="0.7052489519119263"/>
												</Node>
											</Node>
										</Node>
										<Node id="10" defaultChild="14">
											<SimplePredicate field="Age" operator="greaterOrEqual" value="23.5"/>
											<Node id="11" defaultChild="12">
												<SimplePredicate field="BloodPressure" operator="lessThan" value="53.5"/>
												<Node id="12" score="0.11231211572885513">
													<SimplePredicate field="Age" operator="lessThan" value="32.5"/>
												</Node>
												<Node id="13" score="-0.03606056794524193">
													<SimplePredicate field="Age" operator="greaterOrEqual" value="32.5"/>
												</Node>
											</Node>
											<Node id="14" defaultChild="15">
												<SimplePredicate field="BloodPressure" operator="greaterOrEqual" value="53.5"/>
												<Node id="15" score="-0.012691376730799675">
													<SimplePredicate field="DiabetesPedigreeFunction" operator="lessThan" value="0.7383124828338623"/>
												</Node>
												<Node id="16" score="0.04224783182144165">
													<SimplePredicate field="DiabetesPedigreeFunction" operator="greaterOrEqual" value="0.7383124828338623"/>
												</Node>
											</Node>
										</Node>
									</Node>
									<Node id="17" defaultChild="18">
										<SimplePredicate field="Glucose" operator="greaterOrEqual" value="166.5"/>
										<Node id="18" defaultChild="19">
											<SimplePredicate field="DiabetesPedigreeFunction" operator="lessThan" value="1.1575156450271606"/>
											<Node id="19" defaultChild="21">
												<SimplePredicate field="Age" operator="lessThan" value="37.5"/>
												<Node id="20" score="0.1312715858221054">
													<SimplePredicate field="Glucose" operator="lessThan" value="175.0"/>
												</Node>
												<Node id="21" score="0.00300745596177876">
													<SimplePredicate field="Glucose" operator="greaterOrEqual" value="175.0"/>
												</Node>
											</Node>
											<Node id="22" defaultChild="24">
												<SimplePredicate field="Age" operator="greaterOrEqual" value="37.5"/>
												<Node id="23" score="0.1333989053964615">
													<SimplePredicate field="BloodPressure" operator="lessThan" value="77.5"/>
												</Node>
												<Node id="24" score="0.06030989810824394">
													<SimplePredicate field="BloodPressure" operator="greaterOrEqual" value="77.5"/>
												</Node>
											</Node>
										</Node>
										<Node id="25" score="-0.014154079370200634">
											<SimplePredicate field="DiabetesPedigreeFunction" operator="greaterOrEqual" value="1.1575156450271606"/>
										</Node>
									</Node>
								</Node>
							</TreeModel>
						</Segment>
						<Segment id="22">
							<True/>
							<TreeModel functionName="regression" missingValueStrategy="defaultChild">
								<MiningSchema>
									<MiningField name="Glucose"/>
									<MiningField name="DiabetesPedigreeFunction"/>
									<MiningField name="Age"/>
								</MiningSchema>
								<Node id="1" defaultChild="15">
									<True/>
									<Node id="2" defaultChild="8">
										<SimplePredicate field="Glucose" operator="lessThan" value="108.5"/>
										<Node id="3" defaultChild="4">
											<SimplePredicate field="DiabetesPedigreeFunction" operator="lessThan" value="0.22894921898841858"/>
											<Node id="4" defaultChild="5">
												<SimplePredicate field="Age" operator="lessThan" value="39.0"/>
												<Node id="5" score="-0.03498950973153114">
													<SimplePredicate field="DiabetesPedigreeFunction" operator="lessThan" value="0.1802109330892563"/>
												</Node>
												<Node id="6" score="-0.11472306400537491">
													<SimplePredicate field="DiabetesPedigreeFunction" operator="greaterOrEqual" value="0.1802109330892563"/>
												</Node>
											</Node>
											<Node id="7" score="-0.1290968805551529">
												<SimplePredicate field="Age" operator="greaterOrEqual" value="39.0"/>
											</Node>
										</Node>
										<Node id="8" defaultChild="9">
											<SimplePredicate field="DiabetesPedigreeFunction" operator="greaterOrEqual" value="0.22894921898841858"/>
											<Node id="9" defaultChild="10">
												<SimplePredicate field="Age" operator="lessThan" value="42.5"/>
												<Node id="10" score="-0.05123257637023926">
													<SimplePredicate field="Glucose" operator="lessThan" value="100.5"/>
												</Node>
												<Node id="11" score="0.005985031370073557">
													<SimplePredicate field="Glucose" operator="greaterOrEqual" value="100.5"/>
												</Node>
											</Node>
											<Node id="12" defaultChild="14">
												<SimplePredicate field="Age" operator="greaterOrEqual" value="42.5"/>
												<Node id="13" score="0.1228940337896347">
													<SimplePredicate field="Age" operator="lessThan" value="46.5"/>
												</Node>
												<Node id="14" score="-0.008539896458387375">
													<SimplePredicate field="Age" operator="greaterOrEqual" value="46.5"/>
												</Node>
											</Node>
										</Node>
									</Node>
									<Node id="15" defaultChild="16">
										<SimplePredicate field="Glucose" operator="greaterOrEqual" value="108.5"/>
										<Node id="16" defaultChild="17">
											<SimplePredicate field="DiabetesPedigreeFunction" operator="lessThan" value="1.4159590005874634"/>
											<Node id="17" defaultChild="19">
												<SimplePredicate field="DiabetesPedigreeFunction" operator="lessThan" value="1.177341341972351"/>
												<Node id="18" score="-0.02528979443013668">
													<SimplePredicate field="Age" operator="lessThan" value="24.5"/>
												</Node>
												<Node id="19" score="0.01952568255364895">
